<?xml version="1.0"?>
<opencv_storage>
<stage3>
  <maxWeakCount>18</maxWeakCount>
  <stageThreshold>-1.7574499845504761e+00</stageThreshold>
  <weakClassifiers>
    <_>
      <internalNodes>
        0 -1 91462 5.5252909660339355e-02</internalNodes>
      <leafValues>
        -4.7546347975730896e-01 4.0258541703224182e-01</leafValues></_>
    <_>
      <internalNodes>
        0 -1 284963 -6.9360430643428117e-06</internalNodes>
      <leafValues>
        2.2191485762596130e-01 -5.8796560764312744e-01</leafValues></_>
    <_>
      <internalNodes>
        0 -1 284357 -1.5091898385435343e-03</internalNodes>
      <leafValues>
        -7.5718522071838379e-01 1.6957010328769684e-01</leafValues></_>
    <_>
      <internalNodes>
        0 -1 9151 2.0771838724613190e-02</internalNodes>
      <leafValues>
        -4.0172544121742249e-01 3.3564892411231995e-01</leafValues></_>
    <_>
      <internalNodes>
        0 -1 257006 1.1622802913188934e-01</internalNodes>
      <leafValues>
        1.5374463796615601e-01 -8.1497544050216675e-01</leafValues></_>
    <_>
      <internalNodes>
        0 -1 300502 -4.0303415153175592e-04</internalNodes>
      <leafValues>
        2.1137474477291107e-01 -4.9729371070861816e-01</leafValues></_>
    <_>
      <internalNodes>
        0 -1 79533 -1.1189855635166168e-01</internalNodes>
      <leafValues>
        -7.7487623691558838e-01 1.7036919295787811e-01</leafValues></_>
    <_>
      <internalNodes>
        0 -1 11661 7.9249460250139236e-03</internalNodes>
      <leafValues>
        -2.7888530492782593e-01 5.0134354829788208e-01</leafValues></_>
    <_>
      <internalNodes>
        0 -1 282473 -1.0655751451849937e-02</internalNodes>
      <leafValues>
        -9.8094177246093750e-01 1.3177928328514099e-01</leafValues></_>
    <_>
      <internalNodes>
        0 -1 229264 -1.0655927471816540e-03</internalNodes>
      <leafValues>
        3.7683936953544617e-01 -3.6273702979087830e-01</leafValues></_>
    <_>
      <internalNodes>
        0 -1 374540 1.0925771668553352e-02</internalNodes>
      <leafValues>
        -3.4865972399711609e-01 3.4059217572212219e-01</leafValues></_>
    <_>
      <internalNodes>
        0 -1 314572 -6.5948127303272486e-04</internalNodes>
      <leafValues>
        -8.6915910243988037e-01 1.2271106243133545e-01</leafValues></_>
    <_>
      <internalNodes>
        0 -1 168587 -4.6427369117736816e-02</internalNodes>
      <leafValues>
        -8.3118706941604614e-01 1.1669827252626419e-01</leafValues></_>
    <_>
      <internalNodes>
        0 -1 226125 2.1231193386483938e-05</internalNodes>
      <leafValues>
        -4.2600455880165100e-01 2.5563037395477295e-01</leafValues></_>
    <_>
      <internalNodes>
        0 -1 281845 -7.1431836113333702e-04</internalNodes>
      <leafValues>
        -9.4741731882095337e-01 1.1437889188528061e-01</leafValues></_>
    <_>
      <internalNodes>
        0 -1 392219 1.3489287346601486e-02</internalNodes>
      <leafValues>
        -3.1134700775146484e-01 3.5401511192321777e-01</leafValues></_>
    <_>
      <internalNodes>
        0 -1 300614 -3.2841889187693596e-03</internalNodes>
      <leafValues>
        3.4039139747619629e-01 -3.6079910397529602e-01</leafValues></_>
    <_>
      <internalNodes>
        0 -1 299733 -4.2350450530648232e-03</internalNodes>
      <leafValues>
        -9.3056970834732056e-01 1.3993707299232483e-01</leafValues></_></weakClassifiers></stage3>
</opencv_storage>
