<?xml version="1.0"?>
<opencv_storage>
<stage8>
  <maxWeakCount>24</maxWeakCount>
  <stageThreshold>-1.5432094335556030e+00</stageThreshold>
  <weakClassifiers>
    <_>
      <internalNodes>
        0 -1 442707 6.8443561904132366e-03</internalNodes>
      <leafValues>
        -2.4105754494667053e-01 4.3417367339134216e-01</leafValues></_>
    <_>
      <internalNodes>
        0 -1 3993 3.5056445747613907e-02</internalNodes>
      <leafValues>
        -2.1892492473125458e-01 4.1012462973594666e-01</leafValues></_>
    <_>
      <internalNodes>
        0 -1 280575 -1.2050897348672152e-03</internalNodes>
      <leafValues>
        2.9444870352745056e-01 -3.0833393335342407e-01</leafValues></_>
    <_>
      <internalNodes>
        0 -1 301335 -4.9742528062779456e-05</internalNodes>
      <leafValues>
        1.0073538869619370e-01 -6.9400572776794434e-01</leafValues></_>
    <_>
      <internalNodes>
        0 -1 284819 -8.1837866455316544e-03</internalNodes>
      <leafValues>
        -7.4952548742294312e-01 1.2616103887557983e-01</leafValues></_>
    <_>
      <internalNodes>
        0 -1 106972 -5.7598605751991272e-02</internalNodes>
      <leafValues>
        -7.4116289615631104e-01 9.4583004713058472e-02</leafValues></_>
    <_>
      <internalNodes>
        0 -1 419398 4.0385080501437187e-03</internalNodes>
      <leafValues>
        -2.4828870594501495e-01 3.1428518891334534e-01</leafValues></_>
    <_>
      <internalNodes>
        0 -1 386519 3.8456460461020470e-03</internalNodes>
      <leafValues>
        -2.2674366831779480e-01 3.5002911090850830e-01</leafValues></_>
    <_>
      <internalNodes>
        0 -1 316896 6.3873722683638334e-04</internalNodes>
      <leafValues>
        9.6703849732875824e-02 -8.0122625827789307e-01</leafValues></_>
    <_>
      <internalNodes>
        0 -1 229876 -7.8003686212468892e-06</internalNodes>
      <leafValues>
        1.6636854410171509e-01 -3.8682946562767029e-01</leafValues></_>
    <_>
      <internalNodes>
        0 -1 113401 -3.0649468302726746e-01</internalNodes>
      <leafValues>
        -8.1023335456848145e-01 1.0588518530130386e-01</leafValues></_>
    <_>
      <internalNodes>
        0 -1 208944 -1.0375059209764004e-03</internalNodes>
      <leafValues>
        3.4971317648887634e-01 -2.1410825848579407e-01</leafValues></_>
    <_>
      <internalNodes>
        0 -1 316072 -1.1059727985411882e-03</internalNodes>
      <leafValues>
        2.2270861268043518e-01 -3.2674756646156311e-01</leafValues></_>
    <_>
      <internalNodes>
        0 -1 144467 -6.9192335009574890e-02</internalNodes>
      <leafValues>
        -8.8482999801635742e-01 8.9886561036109924e-02</leafValues></_>
    <_>
      <internalNodes>
        0 -1 297707 -4.5417994260787964e-04</internalNodes>
      <leafValues>
        -8.9851790666580200e-01 6.0954067856073380e-02</leafValues></_>
    <_>
      <internalNodes>
        0 -1 263082 1.0244571603834629e-03</internalNodes>
      <leafValues>
        1.1144766211509705e-01 -6.2271904945373535e-01</leafValues></_>
    <_>
      <internalNodes>
        0 -1 176764 4.7430554404854774e-03</internalNodes>
      <leafValues>
        -1.6395017504692078e-01 4.4291687011718750e-01</leafValues></_>
    <_>
      <internalNodes>
        0 -1 104619 2.2735928650945425e-03</internalNodes>
      <leafValues>
        -2.9273176193237305e-01 2.3408122360706329e-01</leafValues></_>
    <_>
      <internalNodes>
        0 -1 106390 -8.5412124171853065e-03</internalNodes>
      <leafValues>
        6.9304579496383667e-01 -8.5574947297573090e-02</leafValues></_>
    <_>
      <internalNodes>
        0 -1 457080 3.7280437536537647e-03</internalNodes>
      <leafValues>
        -1.7028652131557465e-01 3.8577339053153992e-01</leafValues></_>
    <_>
      <internalNodes>
        0 -1 409388 2.1190633997321129e-03</internalNodes>
      <leafValues>
        -3.0219042301177979e-01 2.2405984997749329e-01</leafValues></_>
    <_>
      <internalNodes>
        0 -1 301836 9.5714710187166929e-04</internalNodes>
      <leafValues>
        8.3961598575115204e-02 -7.8161197900772095e-01</leafValues></_>
    <_>
      <internalNodes>
        0 -1 439649 1.1167201213538647e-02</internalNodes>
      <leafValues>
        -2.3497985303401947e-01 3.2742735743522644e-01</leafValues></_>
    <_>
      <internalNodes>
        0 -1 266415 -7.8180164564400911e-06</internalNodes>
      <leafValues>
        2.1657238900661469e-01 -3.4981778264045715e-01</leafValues></_></weakClassifiers></stage8>
</opencv_storage>
